digraph Tree {
node [shape=box, fontname="helvetica"] ;
edge [fontname="helvetica"] ;
0 [label="ratio_to_median_purchase_price <= 4.0\ngini = 0.16\nsamples = 800000\nvalue = [730087, 69913]"] ;
1 [label="distance_from_home <= 100.004\ngini = 0.049\nsamples = 717360\nvalue = [699430, 17930]"] ;
0 -> 1 [labeldistance=2.5, labelangle=45, headlabel="True"] ;
2 [label="distance_from_last_transaction <= 50.028\ngini = 0.012\nsamples = 681622\nvalue = [677565, 4057]"] ;
1 -> 2 ;
3 [label="gini = 0.0\nsamples = 671484\nvalue = [671484, 0]"] ;
2 -> 3 ;
4 [label="online_order <= 0.5\ngini = 0.48\nsamples = 10138\nvalue = [6081, 4057]"] ;
2 -> 4 ;
5 [label="gini = 0.0\nsamples = 3530\nvalue = [3530, 0]"] ;
4 -> 5 ;
6 [label="used_chip <= 0.5\ngini = 0.474\nsamples = 6608\nvalue = [2551, 4057]"] ;
4 -> 6 ;
7 [label="used_pin_number <= 0.5\ngini = 0.184\nsamples = 4232\nvalue = [434, 3798]"] ;
6 -> 7 ;
8 [label="gini = 0.0\nsamples = 3798\nvalue = [0, 3798]"] ;
7 -> 8 ;
9 [label="gini = 0.0\nsamples = 434\nvalue = [434, 0]"] ;
7 -> 9 ;
10 [label="distance_from_home <= 1.903\ngini = 0.194\nsamples = 2376\nvalue = [2117, 259]"] ;
6 -> 10 ;
11 [label="used_pin_number <= 0.5\ngini = 0.21\nsamples = 294\nvalue = [35, 259]"] ;
10 -> 11 ;
12 [label="gini = 0.0\nsamples = 259\nvalue = [0, 259]"] ;
11 -> 12 ;
13 [label="gini = 0.0\nsamples = 35\nvalue = [35, 0]"] ;
11 -> 13 ;
14 [label="gini = 0.0\nsamples = 2082\nvalue = [2082, 0]"] ;
10 -> 14 ;
15 [label="online_order <= 0.5\ngini = 0.475\nsamples = 35738\nvalue = [21865, 13873]"] ;
1 -> 15 ;
16 [label="distance_from_last_transaction <= 50.14\ngini = 0.027\nsamples = 12516\nvalue = [12344, 172]"] ;
15 -> 16 ;
17 [label="gini = 0.0\nsamples = 12319\nvalue = [12319, 0]"] ;
16 -> 17 ;
18 [label="used_pin_number <= 0.5\ngini = 0.222\nsamples = 197\nvalue = [25, 172]"] ;
16 -> 18 ;
19 [label="gini = 0.0\nsamples = 172\nvalue = [0, 172]"] ;
18 -> 19 ;
20 [label="gini = 0.0\nsamples = 25\nvalue = [25, 0]"] ;
18 -> 20 ;
21 [label="used_chip <= 0.5\ngini = 0.484\nsamples = 23222\nvalue = [9521, 13701]"] ;
15 -> 21 ;
22 [label="used_pin_number <= 0.5\ngini = 0.178\nsamples = 15088\nvalue = [1493, 13595]"] ;
21 -> 22 ;
23 [label="gini = 0.0\nsamples = 13595\nvalue = [0, 13595]"] ;
22 -> 23 ;
24 [label="gini = 0.0\nsamples = 1493\nvalue = [1493, 0]"] ;
22 -> 24 ;
25 [label="distance_from_last_transaction <= 50.53\ngini = 0.026\nsamples = 8134\nvalue = [8028, 106]"] ;
21 -> 25 ;
26 [label="gini = 0.0\nsamples = 8013\nvalue = [8013, 0]"] ;
25 -> 26 ;
27 [label="used_pin_number <= 0.5\ngini = 0.217\nsamples = 121\nvalue = [15, 106]"] ;
25 -> 27 ;
28 [label="gini = 0.0\nsamples = 106\nvalue = [0, 106]"] ;
27 -> 28 ;
29 [label="gini = 0.0\nsamples = 15\nvalue = [15, 0]"] ;
27 -> 29 ;
30 [label="online_order <= 0.5\ngini = 0.467\nsamples = 82640\nvalue = [30657, 51983]"] ;
0 -> 30 [labeldistance=2.5, labelangle=-45, headlabel="False"] ;
31 [label="distance_from_home <= 100.037\ngini = 0.214\nsamples = 29057\nvalue = [25516, 3541]"] ;
30 -> 31 ;
32 [label="repeat_retailer <= 0.5\ngini = 0.15\nsamples = 27641\nvalue = [25380, 2261]"] ;
31 -> 32 ;
33 [label="used_chip <= 0.5\ngini = 0.49\nsamples = 3397\nvalue = [1459, 1938]"] ;
32 -> 33 ;
34 [label="used_pin_number <= 0.5\ngini = 0.184\nsamples = 2144\nvalue = [220, 1924]"] ;
33 -> 34 ;
35 [label="gini = 0.0\nsamples = 1924\nvalue = [0, 1924]"] ;
34 -> 35 ;
36 [label="gini = 0.0\nsamples = 220\nvalue = [220, 0]"] ;
34 -> 36 ;
37 [label="distance_from_last_transaction <= 50.469\ngini = 0.022\nsamples = 1253\nvalue = [1239, 14]"] ;
33 -> 37 ;
38 [label="gini = 0.0\nsamples = 1237\nvalue = [1237, 0]"] ;
37 -> 38 ;
39 [label="used_pin_number <= 0.5\ngini = 0.219\nsamples = 16\nvalue = [2, 14]"] ;
37 -> 39 ;
40 [label="gini = 0.0\nsamples = 14\nvalue = [0, 14]"] ;
39 -> 40 ;
41 [label="gini = 0.0\nsamples = 2\nvalue = [2, 0]"] ;
39 -> 41 ;
42 [label="distance_from_last_transaction <= 50.038\ngini = 0.026\nsamples = 24244\nvalue = [23921, 323]"] ;
32 -> 42 ;
43 [label="gini = 0.0\nsamples = 23889\nvalue = [23889, 0]"] ;
42 -> 43 ;
44 [label="used_pin_number <= 0.5\ngini = 0.164\nsamples = 355\nvalue = [32, 323]"] ;
42 -> 44 ;
45 [label="gini = 0.0\nsamples = 323\nvalue = [0, 323]"] ;
44 -> 45 ;
46 [label="gini = 0.0\nsamples = 32\nvalue = [32, 0]"] ;
44 -> 46 ;
47 [label="used_pin_number <= 0.5\ngini = 0.174\nsamples = 1416\nvalue = [136, 1280]"] ;
31 -> 47 ;
48 [label="gini = 0.0\nsamples = 1279\nvalue = [0, 1279]"] ;
47 -> 48 ;
49 [label="distance_from_last_transaction <= 49.579\ngini = 0.014\nsamples = 137\nvalue = [136, 1]"] ;
47 -> 49 ;
50 [label="gini = 0.0\nsamples = 136\nvalue = [136, 0]"] ;
49 -> 50 ;
51 [label="gini = 0.0\nsamples = 1\nvalue = [0, 1]"] ;
49 -> 51 ;
52 [label="used_pin_number <= 0.5\ngini = 0.173\nsamples = 53583\nvalue = [5141, 48442]"] ;
30 -> 52 ;
53 [label="gini = 0.0\nsamples = 48219\nvalue = [0, 48219]"] ;
52 -> 53 ;
54 [label="distance_from_home <= 100.467\ngini = 0.08\nsamples = 5364\nvalue = [5141, 223]"] ;
52 -> 54 ;
55 [label="distance_from_last_transaction <= 50.114\ngini = 0.026\nsamples = 5106\nvalue = [5039, 67]"] ;
54 -> 55 ;
56 [label="gini = 0.0\nsamples = 5023\nvalue = [5023, 0]"] ;
55 -> 56 ;
57 [label="used_chip <= 0.5\ngini = 0.311\nsamples = 83\nvalue = [16, 67]"] ;
55 -> 57 ;
58 [label="gini = 0.0\nsamples = 62\nvalue = [0, 62]"] ;
57 -> 58 ;
59 [label="distance_from_home <= 1.785\ngini = 0.363\nsamples = 21\nvalue = [16, 5]"] ;
57 -> 59 ;
60 [label="gini = 0.0\nsamples = 5\nvalue = [0, 5]"] ;
59 -> 60 ;
61 [label="gini = 0.0\nsamples = 16\nvalue = [16, 0]"] ;
59 -> 61 ;
62 [label="used_chip <= 0.5\ngini = 0.478\nsamples = 258\nvalue = [102, 156]"] ;
54 -> 62 ;
63 [label="gini = 0.0\nsamples = 154\nvalue = [0, 154]"] ;
62 -> 63 ;
64 [label="distance_from_last_transaction <= 45.229\ngini = 0.038\nsamples = 104\nvalue = [102, 2]"] ;
62 -> 64 ;
65 [label="gini = 0.0\nsamples = 102\nvalue = [102, 0]"] ;
64 -> 65 ;
66 [label="gini = 0.0\nsamples = 2\nvalue = [0, 2]"] ;
64 -> 66 ;
}